[{
    "Name":"input",
    "Mean":[],
    "StandardDeviation":[],
    "Min":[],
    "Max":[],
    "NormalizationDimension":"auto",
    "InputSize":39,
    "Normalization":"none",
    "SplitComplexInputs":false,
    "NumInputs":0,
    "InputNames":[],
    "NumOutputs":1,
    "OutputNames":["out"]
},
{
    "Name":"fc1",
    "InputSize":39,
    "OutputSize":10,
    "Weights":[
        [0.259086818,0.173396319,-0.335615456,-0.362458259,-0.364915073,-1.91399264,-0.574285626,-1.24774849,-1.13333321,-0.684449911,2.11238241,-0.40975222,1.41998315,0.174343169,0.131586939,0.284972578,0.574132562,-0.414983422,-0.330070406,0.0496969707,0.196086407,0.0992253721,0.0342171863,0.0793342367,0.2025747,-0.187765494,0.234870389,-0.19551082,0.166485682,-0.26861,-0.182805136,-0.118201494,0.00421351334,-0.118920587,0.117431454,-0.33611086,-0.377079934,-0.175649032,0.168452442],
        [0.214944705,-0.307583779,-0.383532286,-0.135900483,-0.850949883,-1.75686014,-0.364127934,-0.971580207,-1.13397765,-0.77468,1.06102109,-0.377963036,1.1133827,-0.554059625,0.24281393,0.252673537,0.248287901,-0.263414979,-0.3196145,0.36892423,-0.463470727,0.10002546,0.10693603,-0.335193455,-0.165708095,0.237736061,-0.207763538,-0.327138931,0.0881361887,-0.192974404,-0.421327919,0.222991,-0.220872939,-0.17727375,-0.426032722,-0.38071683,-0.477855712,-0.6208812,0.33257854],
        [0.138279751,0.234437704,0.280062944,-0.246213689,-0.0366855264,0.241873309,0.195464566,-0.0332412571,0.206273571,-0.0599484481,-0.17491442,0.202307701,-0.0492978506,-0.222232133,-0.318687379,0.0309697296,0.265886128,-0.338591725,-0.341745377,0.104658358,0.19889231,-0.219542339,0.13773191,0.0196725577,-0.10551852,-0.0115473848,-0.129555196,-0.326830536,0.227020726,0.0664143637,0.068065621,-0.204058424,0.0157685075,0.113723576,0.130427524,-0.313334972,0.0435376,-0.020435296,-0.223416701],
        [0.237160474,-0.0804787576,0.577507436,-1.05384123,0.521365762,-0.57959938,0.574050128,-0.43970269,1.42557037,0.588713765,1.04954529,0.655870259,0.626097322,1.66391194,-0.0392186902,0.130328387,0.283748895,-0.00772754,0.0603788458,0.494319081,0.232528806,0.0198239442,0.0999308527,0.245900869,0.0862171799,0.123462476,0.0990790427,0.374969065,-0.0157829262,0.0618021153,0.592390239,-0.121846922,-0.00409688102,0.124911502,0.380192608,-0.109213673,0.220479473,0.217080981,0.787199736],
        [-0.161324307,-0.371329367,-0.262095094,0.111752518,-0.565192401,-1.65156865,-0.223802254,-1.19159484,-1.75332487,-1.11817873,1.62584829,-0.0986929759,1.02636397,0.156344563,-0.131850064,-0.14662984,0.491754174,-0.359392196,-0.416505784,0.23435545,0.134896457,0.106014349,-0.174289495,0.269267499,-0.175717831,0.35651207,0.364991397,-0.208735377,0.330985814,0.360551417,-0.116416954,0.154277086,-0.313045442,0.0994382799,0.131173551,0.281463653,-0.61832422,-0.117878214,0.372564405],
        [-0.215018421,0.269768,-0.492284089,-0.161698788,-0.685014606,-0.261064112,-0.68668443,-0.267079681,-0.285215676,-0.545599103,-0.291921645,0.180974171,-0.25943774,-0.421036333,0.279083163,0.121745974,-0.17507425,0.10611672,-0.363043457,0.153716117,-0.130870268,-0.267985433,-0.21565716,0.0841193,-0.342512906,0.194887266,-0.23385787,0.271347433,-0.217486113,0.184408262,-0.23610653,-0.289117754,-0.392798781,0.237985715,0.254570812,-0.210364431,0.249882162,-0.196139902,-0.113908671],
        [-0.0693912506,-0.214189544,0.767829239,0.15848811,0.367544353,1.8069452,0.202948153,0.795136452,1.28080845,0.543644667,-1.85832441,0.0420066975,-1.39850473,0.0970700756,-0.0492952466,0.259264052,-0.573185086,0.00693354383,-0.1817085,-0.198758289,-0.0148197031,0.282464594,0.186994165,-0.158851355,-0.32358256,-0.221416786,-0.156055868,-0.102319434,0.230578214,-0.156235099,0.488159955,0.320984364,0.39827919,-0.0690146834,-0.140079916,0.131333113,0.354700238,0.261926323,-0.247691289],
        [0.359212697,-0.0126523376,0.362301797,-0.117910147,0.394463301,1.88827264,0.526787043,0.864623249,1.8992393,0.957008421,-1.52422476,0.624688745,-0.924045861,0.0968524,0.250898182,-0.389726192,-0.137627602,0.111661114,0.395154119,-0.317199588,0.262650341,0.42039609,-0.0584241375,-0.268975168,0.0154176923,-0.448433429,-0.440820813,0.330783635,0.103807159,-0.145461574,-0.121193454,-0.134939134,-0.187563345,0.0595254973,-0.251990646,0.275180876,0.484410614,0.341310024,-0.254267663],
        [0.349179506,-0.171006024,-0.331102103,1.48101437,-0.612257063,0.295116305,-0.741386831,0.0862295255,-2.33461046,-1.49575102,-1.32832575,-1.04494822,-0.814952612,-2.20897961,-0.981944084,-1.20035028,-0.592109919,0.0256505907,-0.18826969,-0.487043172,-0.175049916,0.0332588777,-0.538404644,-0.422329426,-0.43472296,-0.232355297,0.11926876,-0.0453606769,0.150787756,-0.820409596,-0.122617982,0.318280846,-0.132779896,0.0833073556,0.0624934807,-0.225524351,-0.722146809,-0.0834417194,-0.171049267],
        [-0.320778906,-0.0849676952,0.0441206,0.12152458,-0.220445782,0.122549243,0.169367403,0.189485535,0.217188984,0.126070336,-0.0848610401,-0.217054188,-0.305045575,0.0912579149,-0.204901963,-0.148373291,-0.155242339,-0.304868579,0.0172273424,-0.217731446,-0.00346692558,0.00436077779,0.0401554443,0.0330177844,-0.178548589,0.0865496546,-0.092963241,-0.27310124,-0.236603394,-0.0848125666,0.265399545,0.211770549,-0.291768581,-0.28717038,-0.0591050759,0.104362093,-0.22828041,-0.115885861,0.208389193]
    ],
    "Bias":[0.0156560782,-0.0231774822,-0.0546366461,0.156895906,0.0312443618,-0.0785997435,-0.0197541602,-0.0202493835,0.00107874593,-0.0441212617],
    "WeightsInitializer":"glorot",
    "WeightLearnRateFactor":1,
    "WeightL2Factor":1,
    "BiasInitializer":"zeros",
    "BiasLearnRateFactor":1,
    "BiasL2Factor":0,
    "NumInputs":1,
    "InputNames":["in"],
    "NumOutputs":1,
    "OutputNames":["out"]
},
{
    "Name":"relu1",
    "NumInputs":1,
    "InputNames":["in"],
    "NumOutputs":1,
    "OutputNames":["out"]
},
{
    "Name":"fc2",
    "InputSize":10,
    "OutputSize":3,
    "Weights":[
        [-0.337941676,0.206015557,-0.549835205,0.26494351,0.0413977429,-0.259290546,-0.368326962,-0.19276306,-1.84849155,0.175552592],
        [-0.870846212,-0.381818563,0.650806785,-0.577024,-1.28034163,-0.170662656,0.431730598,0.928116202,0.48867017,0.466711462],
        [-0.360465914,0.53330493,0.175604969,-0.70747155,0.441233724,0.496278942,-0.685916603,-0.846731186,1.2016263,-0.529399455]
    ],
    "Bias":[0.14640674,-0.0641860664,-0.127775788],
    "WeightsInitializer":"glorot",
    "WeightLearnRateFactor":1,
    "WeightL2Factor":1,
    "BiasInitializer":"zeros",
    "BiasLearnRateFactor":1,
    "BiasL2Factor":0,
    "NumInputs":1,
    "InputNames":["in"],
    "NumOutputs":1,
    "OutputNames":["out"]
},
{
    "Name":"softmax",
    "NumInputs":1,
    "InputNames":["in"],
    "NumOutputs":1,
    "OutputNames":["out"]
},
{
    "Name":"output",
    "Classes":["F","N","X"],
    "ClassWeights":"none",
    "OutputSize":3,
    "LossFunction":"crossentropyex",
    "NumInputs":1,
    "InputNames":["in"],
    "NumOutputs":0,
    "OutputNames":[]
}]